digraph Tree {
node [shape=box, style="filled, rounded", color="black", fontname="helvetica"] ;
edge [fontname="helvetica"] ;
0 [label="temp <= -3.5\ngini = 0.39\nsamples = 834\nvalue = [353, 967]", fillcolor="#81c1ee"] ;
1 [label="windspeed <= 3.5\ngini = 0.25\nsamples = 492\nvalue = [115, 667]", fillcolor="#5baee9"] ;
0 -> 1 [labeldistance=2.5, labelangle=45, headlabel="True"] ;
2 [label="temp <= -9.5\ngini = 0.12\nsamples = 399\nvalue = [41, 585]", fillcolor="#47a4e7"] ;
1 -> 2 ;
3 [label="gini = 0.01\nsamples = 199\nvalue = [2, 310]", fillcolor="#3a9ee5"] ;
2 -> 3 ;
4 [label="gini = 0.22\nsamples = 200\nvalue = [39, 275]", fillcolor="#55abe9"] ;
2 -> 4 ;
5 [label="shortwave <= 433.0\ngini = 0.5\nsamples = 93\nvalue = [74, 82]", fillcolor="#ecf5fc"] ;
1 -> 5 ;
6 [label="gini = 0.47\nsamples = 75\nvalue = [49, 79]", fillcolor="#b4daf5"] ;
5 -> 6 ;
7 [label="gini = 0.19\nsamples = 18\nvalue = [25, 3]", fillcolor="#e89051"] ;
5 -> 7 ;
8 [label="shortwave <= 301.5\ngini = 0.49\nsamples = 342\nvalue = [238, 300]", fillcolor="#d6ebfa"] ;
0 -> 8 [labeldistance=2.5, labelangle=-45, headlabel="False"] ;
9 [label="temp <= 0.5\ngini = 0.38\nsamples = 233\nvalue = [91, 267]", fillcolor="#7cbeee"] ;
8 -> 9 ;
10 [label="gini = 0.36\nsamples = 217\nvalue = [79, 255]", fillcolor="#76bbed"] ;
9 -> 10 ;
11 [label="gini = 0.5\nsamples = 16\nvalue = [12, 12]", fillcolor="#ffffff"] ;
9 -> 11 ;
12 [label="shortwave <= 569.5\ngini = 0.3\nsamples = 109\nvalue = [147, 33]", fillcolor="#eb9d65"] ;
8 -> 12 ;
13 [label="gini = 0.4\nsamples = 50\nvalue = [59, 23]", fillcolor="#efb286"] ;
12 -> 13 ;
14 [label="gini = 0.18\nsamples = 59\nvalue = [88, 10]", fillcolor="#e88f50"] ;
12 -> 14 ;
}