digraph Tree {
node [shape=box, style="filled, rounded", color="black", fontname="helvetica"] ;
edge [fontname="helvetica"] ;
0 [label="windspeed <= 3.5\ngini = 0.38\nsamples = 823\nvalue = [340, 980]", fillcolor="#7ebfee"] ;
1 [label="shortwave <= 152.5\ngini = 0.3\nsamples = 643\nvalue = [193, 842]", fillcolor="#66b3eb"] ;
0 -> 1 [labeldistance=2.5, labelangle=45, headlabel="True"] ;
2 [label="windspeed <= 2.5\ngini = 0.12\nsamples = 465\nvalue = [46, 683]", fillcolor="#46a4e7"] ;
1 -> 2 ;
3 [label="gini = 0.1\nsamples = 414\nvalue = [32, 606]", fillcolor="#43a2e6"] ;
2 -> 3 ;
4 [label="gini = 0.26\nsamples = 51\nvalue = [14, 77]", fillcolor="#5dafea"] ;
2 -> 4 ;
5 [label="temp <= -1.5\ngini = 0.5\nsamples = 178\nvalue = [147, 159]", fillcolor="#f0f8fd"] ;
1 -> 5 ;
6 [label="gini = 0.42\nsamples = 105\nvalue = [58, 132]", fillcolor="#90c8f0"] ;
5 -> 6 ;
7 [label="gini = 0.36\nsamples = 73\nvalue = [89, 27]", fillcolor="#eda775"] ;
5 -> 7 ;
8 [label="temp <= -1.5\ngini = 0.5\nsamples = 180\nvalue = [147, 138]", fillcolor="#fdf7f3"] ;
0 -> 8 [labeldistance=2.5, labelangle=-45, headlabel="False"] ;
9 [label="shortwave <= 433.0\ngini = 0.49\nsamples = 122\nvalue = [86, 107]", fillcolor="#d8ecfa"] ;
8 -> 9 ;
10 [label="gini = 0.47\nsamples = 103\nvalue = [64, 103]", fillcolor="#b4daf5"] ;
9 -> 10 ;
11 [label="gini = 0.26\nsamples = 19\nvalue = [22, 4]", fillcolor="#ea985d"] ;
9 -> 11 ;
12 [label="windspeed <= 9.0\ngini = 0.45\nsamples = 58\nvalue = [61, 31]", fillcolor="#f2c19e"] ;
8 -> 12 ;
13 [label="gini = 0.44\nsamples = 57\nvalue = [61, 29]", fillcolor="#f1bd97"] ;
12 -> 13 ;
14 [label="gini = 0.0\nsamples = 1\nvalue = [0, 2]", fillcolor="#399de5"] ;
12 -> 14 ;
}