digraph Tree {
node [shape=box, style="filled, rounded", color="black", fontname="helvetica"] ;
edge [fontname="helvetica"] ;
0 [label="shortwave <= 271.5\ngini = 0.39\nsamples = 843\nvalue = [345, 975]", fillcolor="#7fc0ee"] ;
1 [label="temp <= 0.5\ngini = 0.26\nsamples = 665\nvalue = [159, 881]", fillcolor="#5dafea"] ;
0 -> 1 [labeldistance=2.5, labelangle=45, headlabel="True"] ;
2 [label="temp <= -9.5\ngini = 0.24\nsamples = 653\nvalue = [144, 877]", fillcolor="#5aade9"] ;
1 -> 2 ;
3 [label="gini = 0.09\nsamples = 228\nvalue = [16, 328]", fillcolor="#43a2e6"] ;
2 -> 3 ;
4 [label="gini = 0.31\nsamples = 425\nvalue = [128, 549]", fillcolor="#67b4eb"] ;
2 -> 4 ;
5 [label="temp <= 2.5\ngini = 0.33\nsamples = 12\nvalue = [15, 4]", fillcolor="#eca36e"] ;
1 -> 5 ;
6 [label="gini = 0.28\nsamples = 11\nvalue = [15, 3]", fillcolor="#ea9a61"] ;
5 -> 6 ;
7 [label="gini = 0.0\nsamples = 1\nvalue = [0, 1]", fillcolor="#399de5"] ;
5 -> 7 ;
8 [label="temp <= -2.5\ngini = 0.45\nsamples = 178\nvalue = [186, 94]", fillcolor="#f2c19d"] ;
0 -> 8 [labeldistance=2.5, labelangle=-45, headlabel="False"] ;
9 [label="windspeed <= 5.5\ngini = 0.49\nsamples = 77\nvalue = [48, 64]", fillcolor="#cee6f8"] ;
8 -> 9 ;
10 [label="gini = 0.42\nsamples = 55\nvalue = [24, 56]", fillcolor="#8ec7f0"] ;
9 -> 10 ;
11 [label="gini = 0.38\nsamples = 22\nvalue = [24, 8]", fillcolor="#eeab7b"] ;
9 -> 11 ;
12 [label="windspeed <= 1.5\ngini = 0.29\nsamples = 101\nvalue = [138, 30]", fillcolor="#eb9c64"] ;
8 -> 12 ;
13 [label="gini = 0.5\nsamples = 21\nvalue = [17, 14]", fillcolor="#fae9dc"] ;
12 -> 13 ;
14 [label="gini = 0.21\nsamples = 80\nvalue = [121, 16]", fillcolor="#e89253"] ;
12 -> 14 ;
}