digraph Tree {
node [shape=box, style="filled, rounded", color="black", fontname="helvetica"] ;
edge [fontname="helvetica"] ;
0 [label="shortwave <= 341.5\ngini = 0.38\nsamples = 815\nvalue = [341, 979]", fillcolor="#7ebfee"] ;
1 [label="temp <= 0.5\ngini = 0.26\nsamples = 671\nvalue = [166, 910]", fillcolor="#5dafea"] ;
0 -> 1 [labeldistance=2.5, labelangle=45, headlabel="True"] ;
2 [label="temp <= -7.5\ngini = 0.24\nsamples = 649\nvalue = [147, 901]", fillcolor="#59ade9"] ;
1 -> 2 ;
3 [label="gini = 0.1\nsamples = 254\nvalue = [21, 398]", fillcolor="#43a2e6"] ;
2 -> 3 ;
4 [label="gini = 0.32\nsamples = 395\nvalue = [126, 503]", fillcolor="#6bb6ec"] ;
2 -> 4 ;
5 [label="temp <= 3.5\ngini = 0.44\nsamples = 22\nvalue = [19, 9]", fillcolor="#f1bd97"] ;
1 -> 5 ;
6 [label="gini = 0.45\nsamples = 20\nvalue = [17, 9]", fillcolor="#f3c4a2"] ;
5 -> 6 ;
7 [label="gini = 0.0\nsamples = 2\nvalue = [2, 0]", fillcolor="#e58139"] ;
5 -> 7 ;
8 [label="temp <= -1.5\ngini = 0.41\nsamples = 144\nvalue = [175, 69]", fillcolor="#efb387"] ;
0 -> 8 [labeldistance=2.5, labelangle=-45, headlabel="False"] ;
9 [label="windspeed <= 4.0\ngini = 0.5\nsamples = 67\nvalue = [62, 51]", fillcolor="#fae9dc"] ;
8 -> 9 ;
10 [label="gini = 0.44\nsamples = 43\nvalue = [22, 46]", fillcolor="#98ccf1"] ;
9 -> 10 ;
11 [label="gini = 0.2\nsamples = 24\nvalue = [40, 5]", fillcolor="#e89152"] ;
9 -> 11 ;
12 [label="temp <= -0.5\ngini = 0.24\nsamples = 77\nvalue = [113, 18]", fillcolor="#e99559"] ;
8 -> 12 ;
13 [label="gini = 0.38\nsamples = 19\nvalue = [24, 8]", fillcolor="#eeab7b"] ;
12 -> 13 ;
14 [label="gini = 0.18\nsamples = 58\nvalue = [89, 10]", fillcolor="#e88f4f"] ;
12 -> 14 ;
}