digraph Tree {
node [shape=box, style="filled, rounded", color="black", fontname="helvetica"] ;
edge [fontname="helvetica"] ;
0 [label="shortwave <= 334.5\ngini = 0.38\nsamples = 839\nvalue = [343, 977]", fillcolor="#7fbfee"] ;
1 [label="temp <= 0.5\ngini = 0.27\nsamples = 683\nvalue = [172, 914]", fillcolor="#5eafea"] ;
0 -> 1 [labeldistance=2.5, labelangle=45, headlabel="True"] ;
2 [label="shortwave <= 119.0\ngini = 0.25\nsamples = 662\nvalue = [154, 907]", fillcolor="#5baee9"] ;
1 -> 2 ;
3 [label="gini = 0.19\nsamples = 513\nvalue = [87, 731]", fillcolor="#51a9e8"] ;
2 -> 3 ;
4 [label="gini = 0.4\nsamples = 149\nvalue = [67, 176]", fillcolor="#84c2ef"] ;
2 -> 4 ;
5 [label="windspeed <= 6.5\ngini = 0.4\nsamples = 21\nvalue = [18, 7]", fillcolor="#efb286"] ;
1 -> 5 ;
6 [label="gini = 0.38\nsamples = 20\nvalue = [18, 6]", fillcolor="#eeab7b"] ;
5 -> 6 ;
7 [label="gini = 0.0\nsamples = 1\nvalue = [0, 1]", fillcolor="#399de5"] ;
5 -> 7 ;
8 [label="temp <= -2.5\ngini = 0.39\nsamples = 156\nvalue = [171, 63]", fillcolor="#efaf82"] ;
0 -> 8 [labeldistance=2.5, labelangle=-45, headlabel="False"] ;
9 [label="windspeed <= 5.5\ngini = 0.5\nsamples = 63\nvalue = [44, 44]", fillcolor="#ffffff"] ;
8 -> 9 ;
10 [label="gini = 0.4\nsamples = 42\nvalue = [15, 40]", fillcolor="#83c2ef"] ;
9 -> 10 ;
11 [label="gini = 0.21\nsamples = 21\nvalue = [29, 4]", fillcolor="#e99254"] ;
9 -> 11 ;
12 [label="temp <= -0.5\ngini = 0.23\nsamples = 93\nvalue = [127, 19]", fillcolor="#e99457"] ;
8 -> 12 ;
13 [label="gini = 0.3\nsamples = 32\nvalue = [44, 10]", fillcolor="#eb9e66"] ;
12 -> 13 ;
14 [label="gini = 0.18\nsamples = 61\nvalue = [83, 9]", fillcolor="#e88f4e"] ;
12 -> 14 ;
}